<?xml version="1.0"?>
<opencv_storage>
<stage5>
  <maxWeakCount>24</maxWeakCount>
  <stageThreshold>-1.3243428468704224e+00</stageThreshold>
  <weakClassifiers>
    <_>
      <internalNodes>
        0 -1 2748 2.2052276134490967e-01</internalNodes>
      <leafValues>
        -3.4818360209465027e-01 5.2322852611541748e-01</leafValues></_>
    <_>
      <internalNodes>
        0 -1 122711 1.0329751297831535e-02</internalNodes>
      <leafValues>
        -1.9176144897937775e-01 4.2438030242919922e-01</leafValues></_>
    <_>
      <internalNodes>
        0 -1 103036 -1.8646638840436935e-02</internalNodes>
      <leafValues>
        -8.3403962850570679e-01 9.0552024543285370e-02</leafValues></_>
    <_>
      <internalNodes>
        0 -1 88991 1.0410493239760399e-02</internalNodes>
      <leafValues>
        -2.5687050819396973e-01 2.4086712300777435e-01</leafValues></_>
    <_>
      <internalNodes>
        0 -1 127978 -9.6338316798210144e-03</internalNodes>
      <leafValues>
        -7.9578083753585815e-01 6.8989410996437073e-02</leafValues></_>
    <_>
      <internalNodes>
        0 -1 172802 1.3752969913184643e-02</internalNodes>
      <leafValues>
        -1.3038468360900879e-01 4.7958001494407654e-01</leafValues></_>
    <_>
      <internalNodes>
        0 -1 137132 -5.9102743864059448e-02</internalNodes>
      <leafValues>
        3.0093857645988464e-01 -2.3786775767803192e-01</leafValues></_>
    <_>
      <internalNodes>
        0 -1 54731 -7.5556859374046326e-03</internalNodes>
      <leafValues>
        3.6128756403923035e-01 -2.3325437307357788e-01</leafValues></_>
    <_>
      <internalNodes>
        0 -1 6211 -4.4806231016991660e-05</internalNodes>
      <leafValues>
        2.9342469573020935e-01 -1.8845613300800323e-01</leafValues></_>
    <_>
      <internalNodes>
        0 -1 170204 -4.0817048284225166e-04</internalNodes>
      <leafValues>
        -3.2210287451744080e-01 1.7169812321662903e-01</leafValues></_>
    <_>
      <internalNodes>
        0 -1 31964 4.5548618072643876e-04</internalNodes>
      <leafValues>
        1.3221691548824310e-01 -4.9156346917152405e-01</leafValues></_>
    <_>
      <internalNodes>
        0 -1 129344 8.7252259254455566e-03</internalNodes>
      <leafValues>
        -3.0326145887374878e-01 1.9752079248428345e-01</leafValues></_>
    <_>
      <internalNodes>
        0 -1 104743 1.7984333680942655e-03</internalNodes>
      <leafValues>
        -3.4879866242408752e-01 1.5098874270915985e-01</leafValues></_>
    <_>
      <internalNodes>
        0 -1 52333 -6.8983556702733040e-03</internalNodes>
      <leafValues>
        4.5384025573730469e-01 -1.2037093937397003e-01</leafValues></_>
    <_>
      <internalNodes>
        0 -1 101672 9.2637650668621063e-03</internalNodes>
      <leafValues>
        -2.5447878241539001e-01 2.1961539983749390e-01</leafValues></_>
    <_>
      <internalNodes>
        0 -1 34351 -3.6080498830415308e-05</internalNodes>
      <leafValues>
        2.1836130321025848e-01 -2.7447801828384399e-01</leafValues></_>
    <_>
      <internalNodes>
        0 -1 51489 7.9181836917996407e-03</internalNodes>
      <leafValues>
        -1.1405743658542633e-01 5.0171613693237305e-01</leafValues></_>
    <_>
      <internalNodes>
        0 -1 168920 5.7782267685979605e-04</internalNodes>
      <leafValues>
        1.5023420751094818e-01 -3.7101861834526062e-01</leafValues></_>
    <_>
      <internalNodes>
        0 -1 111967 -2.8771497309207916e-03</internalNodes>
      <leafValues>
        4.5284196734428406e-01 -1.1397582292556763e-01</leafValues></_>
    <_>
      <internalNodes>
        0 -1 10212 1.0034701554104686e-03</internalNodes>
      <leafValues>
        -1.5974177420139313e-01 3.8882464170455933e-01</leafValues></_>
    <_>
      <internalNodes>
        0 -1 123099 -9.8790752235800028e-04</internalNodes>
      <leafValues>
        5.0310897827148438e-01 -1.0164614766836166e-01</leafValues></_>
    <_>
      <internalNodes>
        0 -1 108637 -2.4258601479232311e-03</internalNodes>
      <leafValues>
        -7.8942298889160156e-01 7.9959772527217865e-02</leafValues></_>
    <_>
      <internalNodes>
        0 -1 127074 -2.4378648959100246e-03</internalNodes>
      <leafValues>
        3.3677312731742859e-01 -1.6180148720741272e-01</leafValues></_>
    <_>
      <internalNodes>
        0 -1 128227 1.5356522053480148e-03</internalNodes>
      <leafValues>
        -1.7955325543880463e-01 2.6887860894203186e-01</leafValues></_></weakClassifiers></stage5>
</opencv_storage>
