<?xml version="1.0"?>
<opencv_storage>
<stage12>
  <maxWeakCount>42</maxWeakCount>
  <stageThreshold>-1.2011580467224121e+00</stageThreshold>
  <weakClassifiers>
    <_>
      <internalNodes>
        0 -1 79534 1.3470131158828735e-01</internalNodes>
      <leafValues>
        -2.6542130112648010e-01 2.3075126111507416e-01</leafValues></_>
    <_>
      <internalNodes>
        0 -1 131428 1.7772631254047155e-03</internalNodes>
      <leafValues>
        -2.3255617916584015e-01 2.0310379564762115e-01</leafValues></_>
    <_>
      <internalNodes>
        0 -1 112031 3.6427378654479980e-03</internalNodes>
      <leafValues>
        -1.1583976447582245e-01 3.7524503469467163e-01</leafValues></_>
    <_>
      <internalNodes>
        0 -1 170652 -4.9620011122897267e-04</internalNodes>
      <leafValues>
        -3.2417151331901550e-01 1.2160025537014008e-01</leafValues></_>
    <_>
      <internalNodes>
        0 -1 163268 3.3555832487763837e-05</internalNodes>
      <leafValues>
        -1.6793859004974365e-01 2.6752945780754089e-01</leafValues></_>
    <_>
      <internalNodes>
        0 -1 154044 3.4413337707519531e-03</internalNodes>
      <leafValues>
        -1.4307908713817596e-01 3.2570782303810120e-01</leafValues></_>
    <_>
      <internalNodes>
        0 -1 112128 1.0117617784999311e-04</internalNodes>
      <leafValues>
        -3.2692596316337585e-01 1.3442149758338928e-01</leafValues></_>
    <_>
      <internalNodes>
        0 -1 112232 2.5091167539358139e-02</internalNodes>
      <leafValues>
        9.8204538226127625e-02 -3.9887893199920654e-01</leafValues></_>
    <_>
      <internalNodes>
        0 -1 142687 -1.5220907516777515e-03</internalNodes>
      <leafValues>
        2.5687015056610107e-01 -1.3098801672458649e-01</leafValues></_>
    <_>
      <internalNodes>
        0 -1 151477 -1.2173006543889642e-03</internalNodes>
      <leafValues>
        1.6189433634281158e-01 -2.2278301417827606e-01</leafValues></_>
    <_>
      <internalNodes>
        0 -1 131413 1.0514206951484084e-03</internalNodes>
      <leafValues>
        1.0984694957733154e-01 -4.8257663846015930e-01</leafValues></_>
    <_>
      <internalNodes>
        0 -1 175277 2.9474127222783864e-04</internalNodes>
      <leafValues>
        8.9163899421691895e-02 -3.2176339626312256e-01</leafValues></_>
    <_>
      <internalNodes>
        0 -1 118634 -1.0126170702278614e-02</internalNodes>
      <leafValues>
        1.2432233989238739e-01 -3.0396372079849243e-01</leafValues></_>
    <_>
      <internalNodes>
        0 -1 4019 -2.2953629493713379e-01</internalNodes>
      <leafValues>
        -7.4073439836502075e-01 2.1622892469167709e-02</leafValues></_>
    <_>
      <internalNodes>
        0 -1 99717 -4.9978483002632856e-04</internalNodes>
      <leafValues>
        2.5750645995140076e-01 -1.5515919029712677e-01</leafValues></_>
    <_>
      <internalNodes>
        0 -1 26015 6.9104542490094900e-04</internalNodes>
      <leafValues>
        1.6426941752433777e-01 -2.3079748451709747e-01</leafValues></_>
    <_>
      <internalNodes>
        0 -1 11007 5.1033329218626022e-03</internalNodes>
      <leafValues>
        -1.7799735069274902e-01 2.0108434557914734e-01</leafValues></_>
    <_>
      <internalNodes>
        0 -1 8755 1.6713750082999468e-03</internalNodes>
      <leafValues>
        1.9045813381671906e-01 -2.5399115681648254e-01</leafValues></_>
    <_>
      <internalNodes>
        0 -1 16779 -3.4378733835183084e-04</internalNodes>
      <leafValues>
        -3.6258852481842041e-01 1.0896948724985123e-01</leafValues></_>
    <_>
      <internalNodes>
        0 -1 155332 -1.4647657051682472e-02</internalNodes>
      <leafValues>
        1.9480212032794952e-01 -1.7869538068771362e-01</leafValues></_>
    <_>
      <internalNodes>
        0 -1 171716 -2.7897229301743209e-05</internalNodes>
      <leafValues>
        1.6755025088787079e-01 -2.4759136140346527e-01</leafValues></_>
    <_>
      <internalNodes>
        0 -1 49187 3.8560807704925537e-02</internalNodes>
      <leafValues>
        5.7537242770195007e-02 -7.6405507326126099e-01</leafValues></_>
    <_>
      <internalNodes>
        0 -1 98313 -1.5715749468654394e-03</internalNodes>
      <leafValues>
        1.8526667356491089e-01 -1.9049812853336334e-01</leafValues></_>
    <_>
      <internalNodes>
        0 -1 104900 2.7755575720220804e-03</internalNodes>
      <leafValues>
        -2.8989616036415100e-01 1.1402913928031921e-01</leafValues></_>
    <_>
      <internalNodes>
        0 -1 114857 2.9860941693186760e-02</internalNodes>
      <leafValues>
        6.6042058169841766e-02 -5.5483812093734741e-01</leafValues></_>
    <_>
      <internalNodes>
        0 -1 86692 2.5383345782756805e-03</internalNodes>
      <leafValues>
        -1.1197692155838013e-01 3.2756763696670532e-01</leafValues></_>
    <_>
      <internalNodes>
        0 -1 139958 1.2579559115692973e-03</internalNodes>
      <leafValues>
        6.6953547298908234e-02 -5.2774316072463989e-01</leafValues></_>
    <_>
      <internalNodes>
        0 -1 103380 -3.4372678492218256e-03</internalNodes>
      <leafValues>
        2.3506952822208405e-01 -1.4620684087276459e-01</leafValues></_>
    <_>
      <internalNodes>
        0 -1 131420 8.5147900972515345e-04</internalNodes>
      <leafValues>
        6.9079458713531494e-02 -5.2639251947402954e-01</leafValues></_>
    <_>
      <internalNodes>
        0 -1 103942 7.0712727028876543e-04</internalNodes>
      <leafValues>
        -1.3056561350822449e-01 2.5215247273445129e-01</leafValues></_>
    <_>
      <internalNodes>
        0 -1 63633 1.7023753374814987e-02</internalNodes>
      <leafValues>
        -2.2771950066089630e-01 1.5220043063163757e-01</leafValues></_>
    <_>
      <internalNodes>
        0 -1 51 1.9693428475875407e-04</internalNodes>
      <leafValues>
        1.5369364619255066e-01 -2.1198058128356934e-01</leafValues></_>
    <_>
      <internalNodes>
        0 -1 136359 2.7389796450734138e-03</internalNodes>
      <leafValues>
        -1.4975444972515106e-01 2.3336675763130188e-01</leafValues></_>
    <_>
      <internalNodes>
        0 -1 106537 2.0156662911176682e-02</internalNodes>
      <leafValues>
        6.3870102167129517e-02 -6.3388943672180176e-01</leafValues></_>
    <_>
      <internalNodes>
        0 -1 87355 3.3043397706933320e-04</internalNodes>
      <leafValues>
        1.4796754717826843e-01 -2.1886223554611206e-01</leafValues></_>
    <_>
      <internalNodes>
        0 -1 17090 -3.6490324418991804e-04</internalNodes>
      <leafValues>
        -3.3105888962745667e-01 9.4028756022453308e-02</leafValues></_>
    <_>
      <internalNodes>
        0 -1 17012 1.5369962784461677e-04</internalNodes>
      <leafValues>
        1.1835312843322754e-01 -2.5933998823165894e-01</leafValues></_>
    <_>
      <internalNodes>
        0 -1 38812 -6.5974998287856579e-03</internalNodes>
      <leafValues>
        3.3216628432273865e-01 -9.9606327712535858e-02</leafValues></_>
    <_>
      <internalNodes>
        0 -1 33012 -3.5047268029302359e-03</internalNodes>
      <leafValues>
        1.9730919599533081e-01 -1.6921293735504150e-01</leafValues></_>
    <_>
      <internalNodes>
        0 -1 149288 6.5292017534375191e-03</internalNodes>
      <leafValues>
        -1.5362252295017242e-01 2.2919131815433502e-01</leafValues></_>
    <_>
      <internalNodes>
        0 -1 93724 -8.3081354387104511e-04</internalNodes>
      <leafValues>
        3.1673377752304077e-01 -1.1143732815980911e-01</leafValues></_>
    <_>
      <internalNodes>
        0 -1 20671 -3.8774171844124794e-03</internalNodes>
      <leafValues>
        2.4716843664646149e-01 -1.4822290837764740e-01</leafValues></_></weakClassifiers></stage12>
</opencv_storage>
