<?xml version="1.0"?>
<opencv_storage>
<stage8>
  <maxWeakCount>30</maxWeakCount>
  <stageThreshold>-1.1420034170150757e+00</stageThreshold>
  <weakClassifiers>
    <_>
      <internalNodes>
        0 -1 113266 -1.2654402852058411e-01</internalNodes>
      <leafValues>
        2.8601717948913574e-01 -3.6411422491073608e-01</leafValues></_>
    <_>
      <internalNodes>
        0 -1 101214 -4.8570986837148666e-03</internalNodes>
      <leafValues>
        3.9460459351539612e-01 -1.6133101284503937e-01</leafValues></_>
    <_>
      <internalNodes>
        0 -1 4020 -2.0871520042419434e-01</internalNodes>
      <leafValues>
        -7.1756929159164429e-01 9.1572158038616180e-02</leafValues></_>
    <_>
      <internalNodes>
        0 -1 131351 2.8428994119167328e-03</internalNodes>
      <leafValues>
        -1.7106051743030548e-01 3.0421561002731323e-01</leafValues></_>
    <_>
      <internalNodes>
        0 -1 175525 -2.5677264784462750e-04</internalNodes>
      <leafValues>
        -4.1697108745574951e-01 1.0109381377696991e-01</leafValues></_>
    <_>
      <internalNodes>
        0 -1 173296 3.1118267215788364e-03</internalNodes>
      <leafValues>
        -1.0484777390956879e-01 3.9826664328575134e-01</leafValues></_>
    <_>
      <internalNodes>
        0 -1 131428 1.7439934890717268e-03</internalNodes>
      <leafValues>
        -2.2879447042942047e-01 2.1442149579524994e-01</leafValues></_>
    <_>
      <internalNodes>
        0 -1 17013 -7.8901869710534811e-04</internalNodes>
      <leafValues>
        -5.5272722244262695e-01 9.3862265348434448e-02</leafValues></_>
    <_>
      <internalNodes>
        0 -1 143102 -2.3587143514305353e-03</internalNodes>
      <leafValues>
        2.5444081425666809e-01 -1.7639097571372986e-01</leafValues></_>
    <_>
      <internalNodes>
        0 -1 103188 1.8713578581809998e-02</internalNodes>
      <leafValues>
        -3.6285582184791565e-01 1.1294502764940262e-01</leafValues></_>
    <_>
      <internalNodes>
        0 -1 101622 6.5802544355392456e-02</internalNodes>
      <leafValues>
        1.1416485160589218e-01 -4.7309002280235291e-01</leafValues></_>
    <_>
      <internalNodes>
        0 -1 17085 -1.2613845057785511e-02</internalNodes>
      <leafValues>
        -4.7510370612144470e-01 8.7262459099292755e-02</leafValues></_>
    <_>
      <internalNodes>
        0 -1 44670 7.6003640890121460e-02</internalNodes>
      <leafValues>
        6.3998103141784668e-02 -7.2163325548171997e-01</leafValues></_>
    <_>
      <internalNodes>
        0 -1 127913 -1.1622803285717964e-02</internalNodes>
      <leafValues>
        -7.2442197799682617e-01 4.8365343362092972e-02</leafValues></_>
    <_>
      <internalNodes>
        0 -1 76640 2.5396402925252914e-02</internalNodes>
      <leafValues>
        4.6435307711362839e-02 -7.8731936216354370e-01</leafValues></_>
    <_>
      <internalNodes>
        0 -1 140336 8.3248419687151909e-03</internalNodes>
      <leafValues>
        -1.1036270856857300e-01 4.1196152567863464e-01</leafValues></_>
    <_>
      <internalNodes>
        0 -1 5211 3.0481786234304309e-04</internalNodes>
      <leafValues>
        1.0990833491086960e-01 -4.1469123959541321e-01</leafValues></_>
    <_>
      <internalNodes>
        0 -1 5211 -5.7030015159398317e-04</internalNodes>
      <leafValues>
        -5.0112473964691162e-01 9.2752106487751007e-02</leafValues></_>
    <_>
      <internalNodes>
        0 -1 56668 1.2578265741467476e-03</internalNodes>
      <leafValues>
        1.6723984479904175e-01 -2.6851248741149902e-01</leafValues></_>
    <_>
      <internalNodes>
        0 -1 99720 2.5400940794497728e-03</internalNodes>
      <leafValues>
        -1.0789849609136581e-01 4.3217423558235168e-01</leafValues></_>
    <_>
      <internalNodes>
        0 -1 115019 -3.0734550207853317e-02</internalNodes>
      <leafValues>
        -7.4025601148605347e-01 6.2083341181278229e-02</leafValues></_>
    <_>
      <internalNodes>
        0 -1 122875 -5.5544283241033554e-03</internalNodes>
      <leafValues>
        -4.3010589480400085e-01 9.0975910425186157e-02</leafValues></_>
    <_>
      <internalNodes>
        0 -1 17592 -7.7682966366410255e-03</internalNodes>
      <leafValues>
        -3.8952204585075378e-01 1.2306292355060577e-01</leafValues></_>
    <_>
      <internalNodes>
        0 -1 124388 -1.8246900290250778e-02</internalNodes>
      <leafValues>
        -7.5799000263214111e-01 5.1229886710643768e-02</leafValues></_>
    <_>
      <internalNodes>
        0 -1 82827 2.2164275869727135e-03</internalNodes>
      <leafValues>
        -1.5729564428329468e-01 3.2549685239791870e-01</leafValues></_>
    <_>
      <internalNodes>
        0 -1 55710 -2.0390911959111691e-03</internalNodes>
      <leafValues>
        3.1851997971534729e-01 -1.4564476907253265e-01</leafValues></_>
    <_>
      <internalNodes>
        0 -1 17075 -2.9674964025616646e-04</internalNodes>
      <leafValues>
        -3.2816636562347412e-01 1.3350653648376465e-01</leafValues></_>
    <_>
      <internalNodes>
        0 -1 169321 -4.5268938993103802e-04</internalNodes>
      <leafValues>
        -2.7250328660011292e-01 1.5913350880146027e-01</leafValues></_>
    <_>
      <internalNodes>
        0 -1 155332 7.6096296310424805e-02</internalNodes>
      <leafValues>
        -7.3501251637935638e-02 5.6794422864913940e-01</leafValues></_>
    <_>
      <internalNodes>
        0 -1 49811 5.2073365077376366e-04</internalNodes>
      <leafValues>
        1.2329224497079849e-01 -3.4461048245429993e-01</leafValues></_></weakClassifiers></stage8>
</opencv_storage>
